digraph Tree {
node [shape=box, style="filled, rounded", color="black", fontname="helvetica"] ;
edge [fontname="helvetica"] ;
0 [label="petal_length <= 2.45\nfriedman_mse = 0.686\nsamples = 105\nvalue = 1.0", fillcolor="#f2c09c"] ;
1 [label="friedman_mse = 0.0\nsamples = 36\nvalue = 0.0", fillcolor="#ffffff"] ;
0 -> 1 [labeldistance=2.5, labelangle=45, headlabel="True"] ;
2 [label="petal_length <= 4.85\nfriedman_mse = 0.25\nsamples = 69\nvalue = 1.522", fillcolor="#eb9f68"] ;
0 -> 2 [labeldistance=2.5, labelangle=-45, headlabel="False"] ;
3 [label="sepal_length <= 4.95\nfriedman_mse = 0.03\nsamples = 32\nvalue = 1.031", fillcolor="#f2be99"] ;
2 -> 3 ;
4 [label="friedman_mse = 0.0\nsamples = 1\nvalue = 2.0", fillcolor="#e58139"] ;
3 -> 4 ;
5 [label="friedman_mse = 0.0\nsamples = 31\nvalue = 1.0", fillcolor="#f2c09c"] ;
3 -> 5 ;
6 [label="petal_width <= 1.75\nfriedman_mse = 0.051\nsamples = 37\nvalue = 1.946", fillcolor="#e6843e"] ;
2 -> 6 ;
7 [label="sepal_width <= 2.35\nfriedman_mse = 0.25\nsamples = 4\nvalue = 1.5", fillcolor="#eca06a"] ;
6 -> 7 ;
8 [label="friedman_mse = 0.0\nsamples = 1\nvalue = 2.0", fillcolor="#e58139"] ;
7 -> 8 ;
9 [label="petal_length <= 5.05\nfriedman_mse = 0.222\nsamples = 3\nvalue = 1.333", fillcolor="#eeab7b"] ;
7 -> 9 ;
10 [label="friedman_mse = 0.0\nsamples = 2\nvalue = 1.0", fillcolor="#f2c09c"] ;
9 -> 10 ;
11 [label="friedman_mse = 0.0\nsamples = 1\nvalue = 2.0", fillcolor="#e58139"] ;
9 -> 11 ;
12 [label="friedman_mse = 0.0\nsamples = 33\nvalue = 2.0", fillcolor="#e58139"] ;
6 -> 12 ;
}